{
  "W1": [
    [
      0.13747368055851084,
      -0.31165711596875084,
      0.32839355634863526,
      0.3982949288922194,
      -0.5059333565018196,
      -0.35819704479608905,
      0.1773939459903203,
      -0.04042181981331977,
      0.07874770542948893,
      -0.18781820922635323
    ],
    [
      0.244044832284369,
      0.2018048820357539,
      -0.056885557000100215,
      0.27450265797506773,
      0.10616219321327439,
      -0.34516503111173996,
      -0.09193292273822705,
      -0.30012789227533443,
      0.21400328264136942,
      -0.02906946322009011
    ],
    [
      -0.0335907282800308,
      -0.278594392712999,
      0.35658989158792925,
      -0.05808670003698553,
      -0.08993051850929917,
      -0.16268493229068703,
      0.026351594438297724,
      0.19772772746599765,
      0.12471061242132028,
      0.20911655476695695
    ],
    [
      0.6828303895163751,
      -0.19698972945677254,
      -0.20766833736065107,
      -0.28636315549501845,
      0.21418914776167003,
      0.27033295028652093,
      -0.22043791069697627,
      -0.20151816719048954,
      -0.2801661918639289,
      0.24820511031219386
    ],
    [
      0.23491291384882476,
      0.17066852973214375,
      -0.251669154803446,
      0.04073649170282395,
      0.03494973046898142,
      0.03382931711802477,
      0.08508837092783447,
      0.12776461257165375,
      0.17954400387998398,
      0.05287302347023416
    ],
    [
      0.16347606415636948,
      0.15975479757629166,
      -0.4936423016295375,
      -0.09027543028828405,
      -0.05466527303830403,
      -0.2495651132324325,
      -0.279206947016602,
      0.6446305749987706,
      -0.2857452603293077,
      0.45350750726557576
    ],
    [
      -0.36031711086211843,
      -0.09119770089478844,
      0.09466718153211581,
      0.24892569524999894,
      0.3929896270387948,
      0.17053351870177602,
      -0.1633772226090799,
      0.029686472431701118,
      0.34358734444781497,
      0.12113564992567546
    ],
    [
      -0.4736253425830242,
      -0.4609881790743797,
      -0.48464036212389594,
      -0.13063753936111558,
      -0.2883061375039574,
      -0.0015666007494764397,
      -0.2605385325282618,
      -0.22589277347761624,
      -0.008820829474864102,
      -0.4106915145819777
    ],
    [
      0.1294818270661652,
      -0.203357626499591,
      -0.06975595156819582,
      -0.08397276477154172,
      -0.38509823724024056,
      0.19816008196952145,
      0.02036726698219621,
      -0.04777273440231084,
      0.1853315533213769,
      0.1034605841790614
    ],
    [
      0.17233274644789168,
      -0.050989270190230467,
      -0.12959661707398096,
      -0.022643001612988663,
      -0.5414445865413674,
      -0.4313741504011558,
      -0.32628042266010976,
      -0.3405282274808544,
      0.1274101941360906,
      -0.3006315398964122
    ],
    [
      -0.1123048267582134,
      0.5639785550742101,
      -0.028902849721212733,
      0.2897572394061707,
      -0.2970980749947414,
      0.10599536959028225,
      -0.021517206787049433,
      -0.19756053139788854,
      0.3255484381651028,
      -0.6127192524244485
    ],
    [
      -0.03901472281896168,
      0.046535627083357775,
      -0.27736293348679186,
      -0.5882307108572336,
      -0.2653217283356797,
      -0.16462611534198568,
      0.057677265438801036,
      -0.26128933064758497,
      0.3478471770150233,
      -0.3581054611458111
    ],
    [
      -0.10001370431912206,
      0.16807284850957344,
      0.2853172428328157,
      0.7421747740616491,
      0.6472792942565828,
      0.24187381701117444,
      0.5746277923251379,
      -0.09511480613426289,
      0.06188519003564916,
      0.02773787451003433
    ],
    [
      -0.11742410720758366,
      -0.6186008641679299,
      0.09041321371972161,
      -0.14662700662768147,
      -0.4150730298021501,
      -0.5257121120391386,
      -0.20025471019458516,
      0.3900321459451411,
      0.5549286641532166,
      1.0590136978258853
    ],
    [
      -0.016953818419724542,
      -0.40619843255225807,
      -0.8067901735923492,
      -0.14311481144788796,
      -0.5350233297885574,
      -0.23829982864197174,
      -0.25436232732567543,
      -0.27231318690387396,
      0.15555298221896952,
      -0.19339521929733466
    ],
    [
      -0.12303533051782034,
      -0.3364970826149001,
      -0.6385128786251125,
      -0.3920490465981837,
      -0.3546575260429289,
      0.3637073078688957,
      -0.04129055882689188,
      0.03610450470306226,
      -0.3360197038560464,
      -0.6933486854668123
    ],
    [
      -0.3323327856600341,
      -0.3457763644735351,
      0.6126073646377292,
      -0.29332049487450446,
      0.3061974142755538,
      -0.4522900820658611,
      0.02491577423188033,
      0.19670529608806062,
      -0.08751695308304727,
      0.07076554481131837
    ],
    [
      -0.21370092653237482,
      0.15808758936630019,
      -0.0882304866556106,
      -0.31999588768422377,
      -0.35569873022204374,
      0.07167724060395408,
      0.5241481868450795,
      0.06358505867368228,
      0.013099503937800022,
      0.12712238176136081
    ],
    [
      0.3638010918255146,
      0.029687127680388656,
      -0.20878647401739514,
      0.2510163171203123,
      0.025266548198833404,
      0.4247275635210676,
      -0.06742143031153008,
      -0.462709698600419,
      -0.5071883050859811,
      0.4292320651161709
    ],
    [
      0.5382158173890909,
      -0.10645893849177698,
      -0.10882970941296952,
      0.4600620993243063,
      -0.3478120929390687,
      -0.33345159459960416,
      0.13979550227794427,
      -0.12550745381880782,
      -0.002543629551277045,
      -0.045448700267197106
    ],
    [
      0.1566048821466554,
      0.5108791343051553,
      0.15311373325014382,
      0.3527299647615135,
      -0.525032460707653,
      0.12869154470110078,
      -0.025053087537196518,
      -0.3392957647549926,
      -0.15584268621881825,
      -0.03034539891730348
    ],
    [
      0.3033011765371147,
      -0.45946531340331376,
      -0.024228811212394428,
      -0.17840892277950898,
      -0.0899712344031444,
      0.25684638626554973,
      0.02534573842061174,
      0.47697105612055385,
      -0.06753388001363328,
      -0.18852053266385987
    ],
    [
      0.11876617967900685,
      0.18673726338648283,
      0.25272377734299917,
      -0.031003023204609452,
      0.36882042300783824,
      0.21296026099389803,
      0.8413388068824539,
      0.8345005972677011,
      -0.03299250870341369,
      0.18612188220237216
    ],
    [
      -0.45404528224854934,
      -0.18260718103032328,
      0.14137896124139393,
      0.42501840907590815,
      -0.1869613264833215,
      -0.16143067652470508,
      -0.5794276850048528,
      -0.02796291419064194,
      -0.3031477169920515,
      -0.1297960629814795
    ],
    [
      -0.4991739698406322,
      -0.1582410269023447,
      -0.8247715696422302,
      -0.8690522304651223,
      0.17985086694542482,
      -0.5675169690560369,
      -0.5808167072394637,
      0.2196351506820849,
      0.5634212395793108,
      -0.7774671160121216
    ],
    [
      -0.15788631538024603,
      0.08484046820766285,
      0.5915592021222802,
      -0.2583820251551225,
      -0.03520481532986303,
      0.2387972719933557,
      0.16114350549611245,
      -0.1235149317462273,
      0.007768444407802971,
      -0.4154866536356914
    ],
    [
      -0.06177762359295541,
      -0.0968954872016442,
      0.032061706203141416,
      -0.2078233119329782,
      0.1439323106807761,
      0.26333328760963925,
      -0.08931838021948578,
      0.14511799876849937,
      -0.011670393715376027,
      0.01450785987478221
    ],
    [
      -0.28415832013093667,
      0.05599197374242899,
      -0.13746276921905137,
      0.5379180679041788,
      0.38345010752554004,
      0.005725830464535507,
      -0.42337207607333766,
      -0.4308704545329955,
      0.2844702513970473,
      -0.012985190333694715
    ],
    [
      0.05806935331338929,
      -0.6767995160870292,
      0.2948184259523762,
      0.09282480236978817,
      -0.4724123545420207,
      -0.15921814520584066,
      0.25898262857336835,
      -0.20302644695013944,
      -0.09233524583629113,
      -0.21042119282914884
    ],
    [
      -0.05708994373823986,
      0.08897780029561739,
      0.5668124437920155,
      -0.6957115204573026,
      0.031017874588100375,
      0.1619824484060573,
      0.2806484659111149,
      -0.0604023048624418,
      -0.46390850261307826,
      0.185982241544777
    ],
    [
      0.5374401890804128,
      -0.5105166460258277,
      0.19150737151543806,
      -0.23995633863373106,
      -0.138461696795327,
      -0.3700281284065065,
      -0.1842089835642322,
      0.3616062605815709,
      0.08795594348804846,
      0.46618564951134805
    ],
    [
      0.44673069242805064,
      0.18053033350155512,
      0.676329289670606,
      0.370328895490626,
      0.5573115589865649,
      0.054218626597400885,
      0.12796729951113023,
      0.02539088600198445,
      0.48979167239774457,
      -0.10184801310002746
    ],
    [
      -0.01885547666040411,
      -0.18437522988074548,
      0.07379883651445028,
      -0.2254738631855464,
      0.05094706862850014,
      -0.012676595329916426,
      -0.633066281264038,
      -0.3924342309575534,
      -0.7165039921022194,
      -0.5963543443107867
    ],
    [
      0.21848771828107602,
      0.0692538073084003,
      -0.43055321656724144,
      -0.6168220620013574,
      -0.36587781324684643,
      -0.4869170836351491,
      -0.3740549420498949,
      -0.17527086316204613,
      0.10452761169882918,
      -0.1191828780467047
    ],
    [
      -0.8641140020348407,
      0.00139949574215296,
      -0.21147231930297564,
      -0.2491390615491802,
      0.08329596376431654,
      -0.7848868986396703,
      -0.3420286683677602,
      -0.15707754359109577,
      -0.7805148514239507,
      0.09399365782891095
    ],
    [
      0.11893312019127517,
      0.2633439506905658,
      -0.25737279416738845,
      0.17985613546160328,
      0.3259896032758163,
      -0.005446168432947407,
      -0.17925526499352445,
      0.16575699162157448,
      -0.3418079473313308,
      -4.904978097502945e-05
    ],
    [
      -0.09375684912101358,
      0.1940327489276226,
      0.3479812431316409,
      -0.34982634460796014,
      -0.12642219546121336,
      0.5769185091118347,
      -0.003504020560637378,
      -0.37698482276973627,
      0.06569841986869725,
      0.15246147012475458
    ],
    [
      0.06810980017026386,
      0.4896669520266965,
      0.3076677442882563,
      0.31449083139444933,
      0.25664181739454295,
      0.7655875157955562,
      -0.08031978782005345,
      -0.5230423173718295,
      0.5561251794565067,
      -0.0634496573817598
    ],
    [
      0.11787920953857126,
      0.49748446168309424,
      -0.37628654042888227,
      -0.2143873483999757,
      -0.34861315920956415,
      -0.11700667783818784,
      0.3573629424611945,
      0.2488602996524889,
      0.2207368039680907,
      -0.3340494787113695
    ],
    [
      -0.7338029491332537,
      0.12545715181575903,
      -0.10974456047239066,
      0.15553497065227917,
      0.14793147778010024,
      0.11493510657923409,
      0.4381621053945509,
      -0.06645880187686314,
      0.17575286433537066,
      -0.3373247704966875
    ],
    [
      -0.05383038319881747,
      0.12297834570376273,
      0.3287765023355901,
      -0.0605924563677316,
      0.17286433538854942,
      0.029832040854714827,
      0.17746453452994554,
      0.21562963144243866,
      -0.5774058909500279,
      -0.4376018187796925
    ],
    [
      -0.34386926191034006,
      -0.9022906031877482,
      -0.2408332307729058,
      0.2154294675528363,
      -0.004958786798715033,
      -0.1477045422317623,
      0.15316882851811034,
      0.5376690099746823,
      -0.015226502364778582,
      0.557268108737061
    ],
    [
      -0.017801904845980487,
      -0.2994586823381691,
      -0.19364196111795545,
      -0.47918740552681943,
      -0.37305788030250253,
      -0.12050586237669103,
      0.2817666937942588,
      0.4154059880527078,
      -0.46493423589614363,
      0.010329577440830504
    ],
    [
      -0.2752591312815459,
      0.2005618021398553,
      0.05122029878118508,
      -0.45338301649047774,
      0.4139741137146758,
      -0.1023494812532984,
      -0.007117606304641068,
      -0.2604090847111933,
      -0.1175924642221402,
      0.23592871456787184
    ],
    [
      0.018891385444781084,
      0.12273407560264862,
      0.18649269800071233,
      0.5416940930063685,
      0.08349477722761774,
      -0.3651008514911804,
      0.33648823173861164,
      0.05573166552537295,
      0.4581572558411179,
      0.30355611243887304
    ],
    [
      0.03241018102133596,
      0.1525261834148164,
      0.6777007290168935,
      0.7462177001541279,
      0.1553749711171022,
      0.10422514814709409,
      0.37353366939640914,
      -0.15994872769118945,
      0.19144856475679628,
      0.10886530436174294
    ],
    [
      0.11865170488680174,
      -0.25791331375448073,
      -0.44895613175387084,
      -0.5842882445116873,
      -0.3010510568343828,
      -0.10246307194041518,
      0.014448434918107492,
      0.6293060555397896,
      0.39634181574739524,
      -0.27128115708704015
    ],
    [
      0.07526512169045137,
      -0.19771377068968043,
      -0.1769474223698928,
      -0.0382051398263835,
      0.12519114162513578,
      -0.2205346604271925,
      0.115943516014374,
      -0.36508233534230466,
      -0.07968239951194662,
      0.79515684876112
    ],
    [
      0.045658081144194465,
      0.5297539726817828,
      0.0395214533497189,
      0.14327655557791613,
      -0.11210670308147458,
      0.04517495007301704,
      -0.07377472760879297,
      0.053062685729001594,
      -0.3030776512130484,
      0.12557758298555896
    ],
    [
      0.2675153076080026,
      0.10910454982207049,
      -0.1401906041531678,
      0.047804465717319417,
      -0.21141262529689667,
      0.26619948878701855,
      -0.5532752949148431,
      -0.1984269572220576,
      -0.6991832642674173,
      -0.5754526740451658
    ],
    [
      0.6672605563771699,
      0.45260662239635524,
      0.19828487218132462,
      0.11665475637091771,
      -0.305389650185383,
      0.2306280914070422,
      1.0744474893520195,
      0.5695026837907244,
      0.2680290398963197,
      0.6726531654075723
    ],
    [
      -0.29626810964643224,
      -0.06372486205117753,
      0.1407120278949997,
      0.15639366431247487,
      0.5130588401919726,
      0.07450167977324665,
      0.1691554388435313,
      0.0033461728565610496,
      0.43156567077518315,
      0.7618779257528164
    ],
    [
      -0.27884688297650556,
      -0.31842519075245834,
      0.40917980214092464,
      -0.057215516643605066,
      0.46468928906764956,
      -0.1859327881826417,
      0.3733901891222555,
      0.07574870376300284,
      0.08689197769820994,
      0.5264679894046442
    ],
    [
      -0.1444617366412505,
      -0.3159045498037838,
      -0.18058567208857235,
      0.04058078573904543,
      -0.6280985566895773,
      0.14313342660819092,
      -0.13556240472738923,
      0.22309389607092395,
      -0.8143441503466731,
      -0.3934153375793265
    ],
    [
      -0.5156385462761423,
      -0.27621363669683774,
      0.08160009631969603,
      -0.004965459830991163,
      -0.000996449307302258,
      -0.07633297943762811,
      0.02386112131661935,
      -0.26217395994717035,
      0.26521464268942363,
      0.2744323088224224
    ],
    [
      0.1373733096490695,
      0.10296981456355679,
      0.09541758327324366,
      0.6920193518786546,
      0.0743590938878529,
      -0.15113983941824277,
      -0.3432567818131173,
      -0.22354018200579795,
      -0.3609883666818505,
      -0.17505581866613507
    ],
    [
      0.11651962832694825,
      0.17841728525834397,
      0.13790571816463243,
      -0.023548591143815294,
      0.5603090482932557,
      0.2882080186134356,
      -0.018778302295666488,
      0.05934853248682953,
      0.327587664520176,
      0.3259919849541999
    ],
    [
      -0.4114835776997332,
      -0.14011787066883555,
      0.03213428217225259,
      -0.2618521486150866,
      0.18967994997645693,
      -0.618892792658525,
      0.08230760354092007,
      0.557106981403495,
      -0.091283268012261,
      0.29350465707360407
    ],
    [
      -0.8724324617607319,
      -0.44611262002393476,
      -0.30596742796285153,
      -0.7042923699648592,
      -0.20930442297480134,
      0.3114322082736231,
      -0.517816590749482,
      -0.581640421859728,
      -0.20449618035530373,
      0.13501639175270397
    ],
    [
      -0.3336679230999391,
      0.12126173812307452,
      0.6982577949591089,
      -0.36625081397034676,
      -0.23394536391283474,
      -0.031900627137441795,
      0.018632504569612903,
      0.3649560236373491,
      0.20163841540785157,
      -0.4233962310658957
    ],
    [
      0.2597488732767356,
      -0.1485755086477616,
      0.517208959957797,
      -0.00861218354031942,
      0.04553433511933517,
      0.2126147535630642,
      0.194342503192308,
      0.3792445960923255,
      -0.38912398398301695,
      0.4176661571629471
    ],
    [
      -0.30643256205915853,
      0.11743572663774292,
      -0.3886120180582775,
      0.1946416653271672,
      -0.24411382081298166,
      -0.3337239530029579,
      0.3772712349322884,
      0.035069305651969016,
      -0.1575066226347837,
      0.4459446408264275
    ],
    [
      -0.09898778975390857,
      0.04935871496053636,
      0.1739085751533864,
      -0.08796557666092643,
      0.2401953100667207,
      -0.07737609170884664,
      0.05940647215936888,
      0.46932332970140284,
      -0.24631201520507687,
      -0.7021738420451515
    ],
    [
      0.4958166456126352,
      0.8900700279389762,
      -0.06489015522866823,
      -0.569211650712563,
      -0.13302322055885193,
      0.055912284252626794,
      0.17613476625487298,
      -0.4269263067608234,
      0.2209833772829154,
      0.09757918789789492
    ]
  ],
  "b1": [
    0.11160598734511509,
    -0.02582042695438081,
    0.08674164106054641,
    0.04946210062359232,
    0.03417178559892143,
    0.17502296440560935,
    0.22526694627456062,
    -0.3907145783427086,
    -0.039538547992378686,
    -0.02214596716754792,
    -0.06678160831807857,
    -0.35783812622454647,
    0.4287721553411137,
    0.1249212802718593,
    -0.32410986384784324,
    -0.39507472978183117,
    0.07375844187102536,
    0.03645708737519095,
    -0.1220236224214592,
    0.0016951423831748677,
    0.10775434660927637,
    0.04185982019159353,
    0.37697368937895565,
    0.045052505719320055,
    -0.542487201870554,
    0.016394075682531956,
    0.016144316411962345,
    -0.1276208596744824,
    -0.21234612878517095,
    0.1037792693745081,
    -0.10294927970755802,
    0.3454654230056914,
    -0.5785241958855077,
    -0.4211115902653082,
    -0.485549595202447,
    0.04286476873606,
    -0.13148325269498976,
    0.11438927101105661,
    0.1575099438806783,
    -0.13424434049898612,
    -0.02264875350290952,
    0.1463532917787561,
    -0.13766376999613575,
    0.12973151639998443,
    0.231178946213175,
    0.15491859953295345,
    0.04607325254875627,
    -0.04695174511639504,
    -0.10632761639621045,
    -0.13764675192599232,
    0.6872900671214754,
    0.31758997247219156,
    0.03944089272328126,
    -0.17651467559043837,
    0.08083728470815485,
    0.12695767247217016,
    0.34514441578457145,
    0.19241969297090558,
    -0.4804344783362036,
    0.17895623496775004,
    0.3132373768312819,
    -0.014276468055196018,
    0.08604120010817232,
    -0.07235981622419183
  ],
  "Wa": [
    [
      -0.10011917896009803,
      -0.0046071212568634355,
      0.1555912127188584,
      -0.028971047355414566,
      -0.14498311063161076,
      -0.055582597693679944,
      -0.020828889981144356,
      -0.1618602130663228,
      0.11905986690500256,
      0.06693579538216939,
      0.32777342285395067,
      0.06687974612819125,
      0.09640503773337364,
      -0.21584020948294885,
      0.18428776097950694,
      0.12887469023989248,
      -0.1375503287356149,
      0.037340566190348035,
      0.05837326385371057,
      -0.051906272649437694,
      -0.12360858737828981,
      -0.09133180303320938,
      -0.2281066555781539,
      0.07036504479297026,
      0.0982993754033427,
      -0.1838975474233529,
      -0.29612933889205717,
      -0.02061211331603066,
      0.014706620658307473,
      -0.26036094485543837,
      0.07544997546715432,
      -0.072317308237872,
      0.014598183749274503,
      -0.05249520725621233,
      0.19095986051216746,
      -0.04739638772536925,
      0.34971858772469444,
      -0.05735219958646442,
      0.13929002861298212,
      0.025616650140569592,
      0.18888007578520197,
      -0.020497107130917267,
      0.2584928405024032,
      0.026931202925997162,
      -0.1651558796747619,
      -0.1760934988335175,
      0.20903593644586033,
      0.08759938858881952,
      -0.013500173653477365,
      0.06229302305487494,
      -0.016806914364185705,
      -0.13554057872704844,
      0.004973543644909963,
      -0.17081708310151733,
      -0.11828981059942614,
      -0.1359475862305089,
      -0.38978554609516874,
      -0.17222968022407387,
      -0.010998487247205008,
      0.05914744501525646,
      0.0912462108840359,
      0.05323109116892641,
      -0.03421910102411481,
      0.06317657256991879
    ],
    [
      0.15098899982587916,
      -0.14862223061879995,
      -0.1449348756047863,
      0.05840760480593789,
      -0.05803192815406155,
      0.0743212677817158,
      -0.032354705821637665,
      0.11473600800875623,
      -0.10069787683109971,
      0.03355280170529309,
      0.0036386387474056725,
      -0.12052374148060671,
      -0.23113506259251118,
      0.060357654041741926,
      -0.008628711951918309,
      -0.09512206504516074,
      -0.027121469860385862,
      0.13721049352128672,
      -0.3090062364197582,
      -0.19527029531278872,
      -0.08969311428935262,
      0.1569333426306529,
      -0.0009531657873127824,
      0.12947557217703318,
      -0.10661026391865289,
      -0.14232265511523107,
      0.029736182127403685,
      -0.01358413311436178,
      0.09453408897103928,
      -0.010268534465620118,
      0.03807233964543186,
      -0.014776207637879958,
      0.13230490404236422,
      0.13618276892495562,
      -0.16945223722193464,
      -0.3068674334149749,
      0.14167413365786702,
      0.11542402351939172,
      -0.1013933764209771,
      -0.21861282906740595,
      0.037465179845478036,
      0.08417607692452912,
      0.25602955323095894,
      0.0907164648280706,
      -0.08134883579896422,
      -0.14757467497800467,
      0.03387718126382461,
      -0.06698802668182241,
      -0.11149477938152119,
      0.2922293107829462,
      0.19313649808193945,
      0.10825497762501773,
      -0.1505619770774349,
      0.14098157500874808,
      0.07447887688249977,
      0.039828611180923165,
      0.12382971654300248,
      0.060246626743247364,
      0.12765561049367397,
      0.10131418513960766,
      0.017906214777338118,
      -0.1992196640051888,
      0.036811821184937775,
      -0.04723533431718479
    ],
    [
      -0.15521490121449488,
      0.19876921326699432,
      0.1976129350860247,
      0.17557578175528873,
      0.018886805788885647,
      0.18032195339764234,
      -0.0140940890573838,
      0.06434366021455443,
      -0.12108892549058492,
      0.0690637113875745,
      0.027823994203087433,
      -0.14548906886815155,
      -0.027022759772629284,
      -0.03014032757556129,
      0.2448513739975416,
      0.1305820163392753,
      -0.03158366651310498,
      0.003646919551750753,
      -0.004010075300932509,
      -0.03776595173213756,
      -0.11815649088236363,
      -0.030980811416877498,
      -0.11399604967477685,
      -0.1410186880759855,
      0.08675762129727736,
      0.023360435272218687,
      -0.23607504632171245,
      -0.025530288922260294,
      0.13019407291509677,
      0.1287434787289932,
      0.14848721085695282,
      -0.012619026617300237,
      -0.08499129435475727,
      -0.11448966924852784,
      0.061984698381228845,
      0.036727778359231446,
      0.16619627917277835,
      0.12122621275776638,
      0.0033423583248658527,
      -0.15518448898200507,
      -0.029704275727899104,
      0.002384303717834439,
      -0.011273790663773589,
      -0.05999763265440362,
      0.012927874431395642,
      -0.08352734037682796,
      -0.059763759673939695,
      0.021190632541038493,
      -0.04138910877108519,
      0.051156064176683114,
      -0.019429711712534974,
      -0.1612952386683713,
      -0.08162736736888351,
      0.19660606834745037,
      -0.1502094112105468,
      -0.2713341990664912,
      -0.2478343435043353,
      -0.016365107544416446,
      0.020292128254944072,
      -0.005725777854672143,
      0.11225512534271316,
      -0.32666071177430966,
      0.06213322470407817,
      0.21866082006025386
    ],
    [
      -0.1367647719796159,
      -0.055211005808951226,
      -0.10149342461202454,
      -0.11347382663413602,
      -0.04949981936371906,
      0.17452121112009228,
      0.221574672694785,
      -0.03199749014494724,
      0.24613967960964017,
      0.013926105672443092,
      0.22608012047151993,
      -0.0020676986453913478,
      0.005978535067730286,
      0.043048739811526675,
      0.4075892024377131,
      0.11699980266343732,
      -0.09011083388291036,
      0.12116594434794903,
      -0.051847287489205356,
      -0.06481406361174813,
      0.11717925948375683,
      -0.0011900408872967249,
      0.0244404587676579,
      0.011072490533640005,
      0.05267555002506333,
      0.053962626358116474,
      -0.2479848123841022,
      0.08026975379219693,
      -0.11350580974245054,
      -0.17958189632791738,
      -0.0048363819628994345,
      -2.2208768864935655e-05,
      -0.07613152772205786,
      0.11392623422901457,
      -0.1573723282399585,
      -0.05905338680388582,
      -0.06925366700414505,
      -0.014862041848878516,
      0.03872433221644532,
      -0.12232307729588571,
      0.0961035175792572,
      0.0015518935499370917,
      -0.22756590615060426,
      -0.23909432664983443,
      -0.011478246425259929,
      -0.03751132990418986,
      -0.0037619591207365645,
      -0.01094041759459535,
      0.0284082551153572,
      0.12825410594537084,
      -0.14872734739139554,
      -0.15611452750954755,
      -0.14599910203994448,
      0.0459841015561191,
      0.15791400837669273,
      -0.05879786846484684,
      -0.3225069706248944,
      -0.217565861452076,
      -0.09232587811925519,
      -0.06504067347377518,
      -0.05930906978586252,
      0.00966375721832802,
      -0.03269538401982962,
      0.13101323396697329
    ],
    [
      -0.19999902599554828,
      0.03003740236954052,
      0.21786028493717283,
      -0.1340707905712692,
      0.20360078227969752,
      0.049686298477398874,
      0.13365392983343338,
      0.06804381018661373,
      -0.22857599578740245,
      0.0778112548220761,
      -0.182093613214682,
      -0.3066780958049463,
      0.18754799437343692,
      -0.008487351049767894,
      -0.2704789026149124,
      -0.10137792100774774,
      0.14818340061726834,
      -0.06173486713522082,
      0.2566860825469279,
      0.1803082328229207,
      0.04523228656651126,
      0.19820220739833222,
      0.35312419453155786,
      -0.40641347483197576,
      -0.21760356984288526,
      -0.110598207871759,
      0.1539163647774644,
      0.04355427885778551,
      -0.14173594195020078,
      0.1648034157689768,
      -0.024586448298023762,
      0.22063167221010074,
      -0.19914629789197574,
      -0.16897107800510774,
      -0.14807220333924054,
      0.1919322319331674,
      0.06817869051815342,
      0.37415151385729767,
      -0.10204636376157734,
      0.00933933531685555,
      -0.2714792150485686,
      0.15091986397965065,
      -0.038735259771263394,
      -0.027998490523998585,
      0.20068647313083846,
      0.2933612325768088,
      -0.10919570834707723,
      0.3044992197020592,
      -0.03214694112677581,
      -0.22642780316915118,
      0.19147572598736512,
      -0.1992681060078733,
      0.2281554040867311,
      -0.6275643098672191,
      -0.19235293581324847,
      0.12173904307762004,
      0.2167088429966857,
      -0.04978335223282255,
      -0.2557937941551359,
      0.0516801804919786,
      0.059842565002207096,
      0.16048493006425557,
      -0.14014617989864114,
      -0.06490685613426508
    ]
  ],
  "ba": [
    -0.12246036909513279,
    -0.03801136735340573,
    -0.022175778781057327,
    -0.010533124245941508,
    0.19318063947553774
  ],
  "Wv": [
    [
      -0.04432054066070781,
      -0.06267630950711296,
      0.1332070682517042,
      0.07327008326312436,
      0.11019140930182941,
      0.1590855388294753,
      0.24793286020875754,
      -0.9548506864808315,
      -0.032269027706862755,
      -0.2980537702226989,
      -0.20703675940796545,
      -0.6178611768085119,
      0.8493627850977732,
      0.2217725225885602,
      -0.9071220689712649,
      -0.9346401902406019,
      0.05430256800529125,
      0.007379286637387762,
      0.004443143889141198,
      -0.047155154218600975,
      -0.052278052426649284,
      0.08856729675738569,
      0.7613764912446429,
      -0.029648960216143296,
      -1.154279012856391,
      -0.0509608453837849,
      0.05211741872963856,
      -0.09180435486067408,
      -0.3361085793518526,
      0.05312126157739253,
      0.11460109104577335,
      0.857589131139666,
      -1.107846060187224,
      -0.61062935540173,
      -0.8808064365125164,
      0.07280513994812347,
      -0.03659540748843913,
      0.2915341387394769,
      -0.022872222723250776,
      -0.11423146717389818,
      -0.013485683487381024,
      0.2864961445304288,
      -0.18523203671292515,
      0.00886378002714195,
      0.4432739213581206,
      0.4074490726815999,
      -0.035629590618274046,
      0.06588928896291474,
      0.011782244610900536,
      -0.4054762612794533,
      1.4839957284656151,
      0.809326512369266,
      0.3080144867306236,
      -0.5237891839676021,
      -0.01626246038333246,
      -0.037178639921455064,
      0.6944206762651057,
      0.12619535353682476,
      -1.073337138678868,
      0.018098091514642266,
      0.5707162602567688,
      -0.007770493227820873,
      -0.003276392700377392,
      -0.05987629168185749
    ]
  ],
  "bv": [
    0.5210386211005068
  ]
}