{
  "W1": [
    [
      -0.07736876332387868,
      -0.26650802404575746,
      0.2951136641569539,
      0.5458624261571817,
      -0.5087592186305945,
      -0.38217719506190967,
      0.2936896572349977,
      -0.1931387163341427,
      -0.026904136156994968,
      -0.2257537929154967
    ],
    [
      -0.04774282233991124,
      0.17786133764178616,
      -0.07196696963573021,
      0.1597959308137493,
      0.5171560405516802,
      -0.27897398520578387,
      -0.12470984059514623,
      -0.3695821894011698,
      0.21848971558473546,
      -0.1657365570601859
    ],
    [
      0.032835318249346074,
      -0.3987738682237322,
      0.5821978556538989,
      0.12571308612647342,
      -0.0812916760522516,
      -0.24532727808293928,
      0.11503734610735764,
      0.16181450288094212,
      0.12850086000691813,
      0.21881968936814034
    ],
    [
      0.7754419068309326,
      -0.19363157317664376,
      -0.3227927510206464,
      -0.25551438970665385,
      0.05049158452433727,
      0.47974872036936506,
      -0.041300155244504394,
      -0.5677006868048005,
      -0.10582965382534976,
      0.32018305282644155
    ],
    [
      0.20229882207050615,
      0.0739981813076631,
      -0.4253293040417651,
      0.16411058012477575,
      0.01739052182692863,
      0.003418614899646839,
      0.068227524380933,
      0.2722890272639365,
      -0.10187026650691901,
      0.3601480675571664
    ],
    [
      -0.02677701121684259,
      0.1330344711163956,
      -0.4609507070993205,
      -0.03232604926581216,
      -0.12026430309841982,
      -0.18721065093546652,
      -0.32457691435558034,
      0.7133085794090815,
      -0.2601539630181906,
      0.6562946191110417
    ],
    [
      -0.13999554772350803,
      -0.24287253111996454,
      0.23624109382760916,
      0.3587245739880713,
      0.43758193739773577,
      0.13552016005809814,
      -0.052824415123760946,
      0.039662361333290624,
      0.3275350946063645,
      0.20369116486419014
    ],
    [
      -0.7778339203942428,
      -0.10869907717282883,
      0.06608131964267579,
      0.272513564823652,
      0.04316692096374381,
      -0.022594498972071983,
      0.1880288780363646,
      -0.1934362053341082,
      0.3688797077314796,
      -0.008410669721194513
    ],
    [
      -0.020481824530564158,
      -0.266429502315204,
      0.05369097472264016,
      -0.1297958347225166,
      -0.6047588619548432,
      0.43434057845432217,
      0.041836514381087014,
      -0.07496766468346305,
      0.20059793736234785,
      -0.019647761890202092
    ],
    [
      0.047978033839535514,
      0.055777347550046194,
      -0.09548353381641848,
      0.06460444258696531,
      -0.5072985158522509,
      -0.23418605937218673,
      -0.32206590566004806,
      -0.3490800555986884,
      0.4452289054621743,
      -0.34599944287174966
    ],
    [
      -0.08394842650180251,
      0.5713641057630162,
      0.11597219115964771,
      0.3634185973431567,
      -0.22358055584507175,
      0.44074833216650305,
      -0.24977111004946864,
      -0.14093156604777013,
      0.3051426758104932,
      -0.7875402652922097
    ],
    [
      -0.07901242317645163,
      0.06469221288692703,
      -0.43255662972912423,
      -0.6999047884990941,
      -0.04883395801235766,
      -0.2038547511892202,
      -0.10476372034247367,
      -0.25313379875692366,
      0.007902972822108324,
      -0.5729971256282971
    ],
    [
      -0.11661861299885719,
      0.31005958415954604,
      0.09264969244297142,
      0.6966837734315057,
      0.6549839412836319,
      0.24710965364360085,
      0.6670253276106102,
      -0.29512642673482237,
      0.09143066610698906,
      0.2048547468376028
    ],
    [
      -0.21084123185864623,
      -0.6841338358416991,
      -0.025921439658918768,
      -0.06086105949744268,
      -0.350154371904792,
      -0.554885450560224,
      0.08593825072453902,
      0.1102039223138496,
      0.5297342003867379,
      1.1006906380349102
    ],
    [
      -0.11547592554788712,
      -0.2588281649315593,
      -0.8489818818513324,
      -0.13064699220400502,
      -0.6049913692392982,
      -0.2527314348172236,
      -0.1772027230851414,
      -0.4107504456211156,
      0.08511393086178412,
      -0.22899134554283235
    ],
    [
      -0.31001051958512765,
      -0.44309037160988235,
      -0.7904813378009363,
      -0.31769723961809226,
      -0.22357572154679334,
      0.34510673410575515,
      -0.0041045616345382506,
      -0.1495082796818934,
      -0.4260888745829785,
      -0.6660987255931049
    ],
    [
      -0.2832440842251995,
      -0.3391974173083226,
      0.7408042169285496,
      -0.4235714399533308,
      0.27086048839493837,
      -0.26220691006646096,
      0.07173199600437323,
      0.49931651313329495,
      -0.007500487891805756,
      0.3969059069539413
    ],
    [
      -0.26334881588308845,
      0.186871564597906,
      0.08742168708871043,
      -0.1877512243641802,
      -0.3093932466331621,
      0.22507057747046255,
      0.4945683458840278,
      0.22017470755333443,
      -0.06535943724813856,
      0.21866405443495546
    ],
    [
      0.053341049721642816,
      -0.16640524787576338,
      -0.23202975637145407,
      0.3801380464305949,
      0.0064327133025709575,
      0.2066208921274266,
      -0.11905064939781651,
      -0.6202070203101802,
      -0.273474692528959,
      0.4357090090349088
    ],
    [
      0.8204349055813889,
      -0.049845075446040055,
      -0.1467971057457826,
      0.2894281428862343,
      -0.43613076894244585,
      -0.3133954769986923,
      0.3196843002759676,
      0.21303728780989004,
      0.03873084777185634,
      -0.21916182565735812
    ],
    [
      0.16891380777649914,
      0.6158997530662289,
      0.18756816599196485,
      0.1954090270895448,
      -0.536574569598758,
      -0.0360206938751363,
      -0.15732704753337512,
      -0.16168964474655206,
      0.054609016720404524,
      -0.16785371508268268
    ],
    [
      0.28412173068371216,
      -0.4360805748494098,
      -0.0306400727657426,
      0.025705752022355574,
      -0.2554995167239122,
      0.43188390300669144,
      0.018309661223459606,
      0.4600634346786684,
      0.10959710243944164,
      -0.2793038061828961
    ],
    [
      0.01560009610564483,
      0.2396134901610381,
      0.4045101599479119,
      0.0020189968669391267,
      0.5017612247857299,
      0.45476860143309994,
      0.8184648444440563,
      0.9810813541862826,
      -0.09498872659498785,
      0.14028777165459683
    ],
    [
      -0.4983633364783863,
      -0.05880787897922357,
      0.4379365871580616,
      0.49652214554891666,
      -0.05891252207250304,
      -0.1139754319110868,
      -0.6196820666684882,
      0.04412706940810747,
      -0.1304823659010505,
      0.06651875041256891
    ],
    [
      -0.3599663458843084,
      -0.18398928019980132,
      -0.8736391610656065,
      -0.8655277048925778,
      0.3119507920984752,
      -0.47075920349778105,
      -0.44334534452809043,
      0.22205182742369034,
      0.7696836469210108,
      -0.7227322076923612
    ],
    [
      -0.1495513893047114,
      0.07954856085861657,
      0.35685826884956845,
      -0.2709847082623517,
      -0.0710196720573393,
      0.2760343675103093,
      0.3878096658154577,
      0.017318930854382734,
      0.0032868773282149627,
      -0.37471086689145056
    ],
    [
      0.13523027600036636,
      0.003318021933359707,
      -0.07620193573585145,
      -0.19580754221511612,
      0.0041147590489543275,
      0.17599145588667914,
      0.056680802228371255,
      0.2521735007228316,
      -0.06859484865206059,
      0.14788461106254217
    ],
    [
      -0.28590437868224994,
      0.2985132211205574,
      -0.07161200998241396,
      0.6364490228412311,
      0.33368061890388195,
      -0.15375912049845847,
      -0.32167644198268064,
      -0.5051325287194317,
      0.23393379854709329,
      0.06647232503109138
    ],
    [
      -0.037119963237483816,
      -0.5718876285919638,
      0.1307319100387997,
      -0.05182659022197249,
      -0.3184710344543705,
      -0.29976012840195987,
      0.23322757857686177,
      -0.16022560241863473,
      -0.26275035168548133,
      -0.3401659679596085
    ],
    [
      -0.09479388514332046,
      0.09232705843667825,
      0.495315474569972,
      -0.620490540760722,
      0.14290345456524897,
      0.00570283662874141,
      0.09339025652244513,
      -0.27348305566605713,
      -0.4995075651422871,
      0.3505115195347049
    ],
    [
      0.523675522100573,
      -0.3451965514758586,
      0.1059810369090316,
      -0.25388528364199064,
      -0.09729586705883361,
      -0.5750196359933022,
      -0.11787988196024615,
      0.37805808762269877,
      0.06525054821098203,
      0.6308926851407529
    ],
    [
      0.25430349467872754,
      -0.13633436037607477,
      0.6233239884462745,
      0.2661667570729961,
      0.6461600589246976,
      0.2168798985438885,
      0.1783914683135407,
      -0.0017704944199466565,
      0.5751042806962714,
      0.009311941638950756
    ],
    [
      -0.13906002042765156,
      -0.2650761728054061,
      0.24888451592095706,
      -0.4349366649401639,
      0.03158860972774598,
      0.06312664434442918,
      -0.7450206861200385,
      -0.41158412397680505,
      -0.8931848527257858,
      -0.5664728391769207
    ],
    [
      0.24781022160584223,
      0.12017178019852008,
      -0.4827595761479523,
      -0.8291437862255209,
      -0.4445774917518939,
      -0.2225654818641471,
      -0.39222995331820876,
      -0.027641884830893537,
      0.07601254522318336,
      -0.1529263396447384
    ],
    [
      -0.7789268021535395,
      0.1212277304670164,
      0.05348122911879854,
      -0.12840710327594757,
      0.5086145185097103,
      -0.5617231428393019,
      0.35928539135338927,
      0.14352307842006184,
      -0.5289557040694918,
      0.21389570191022703
    ],
    [
      0.3523107670784924,
      0.35242944393213693,
      -0.09355695475335164,
      0.2737707533197517,
      0.1910289296955654,
      0.22214464376192852,
      -0.2595497213371122,
      0.3587352970342405,
      -0.29910276990066514,
      -0.3686185326497875
    ],
    [
      -0.1076587327567369,
      0.12855013568403306,
      0.39416181036550335,
      -0.6018721894320029,
      -0.2645324804180319,
      0.9453700530120283,
      0.1321437147160253,
      -0.4596407746252835,
      0.23466921987119177,
      0.0021925996794203402
    ],
    [
      -0.3165144450958198,
      0.397411713241287,
      0.18411412646365632,
      0.2997896258588334,
      0.05342312303849965,
      0.5098378434581934,
      -0.09069949413515768,
      -0.9048486898996673,
      0.3152568452206863,
      -0.2939564302907444
    ],
    [
      0.324691905368295,
      0.5352362684672411,
      -0.5309583136151784,
      0.13998064019796902,
      -0.4802368851266284,
      -0.18758727844530074,
      0.31767790211236535,
      0.37017867676751937,
      0.4652694410668034,
      -0.10542030636250448
    ],
    [
      -0.8980665610851105,
      0.21358050406774207,
      -0.08000234779331461,
      0.15231342590582242,
      0.33538603243790605,
      -0.212104944362553,
      0.5235889566774521,
      -0.09297813306861831,
      0.19321305347231885,
      -0.4875899134960775
    ],
    [
      -0.07559427131829413,
      0.18807057276277325,
      0.24342473224917177,
      -0.2494728290417872,
      0.1379411243031815,
      0.17915154630507096,
      0.23507411844155263,
      0.19343242145327486,
      -0.4456417189961721,
      -0.42482690549385793
    ],
    [
      -0.6865718741597926,
      -0.9363160869561835,
      -0.1898093053696779,
      0.4846289243600359,
      0.15501876153938488,
      -0.3275088782780046,
      0.07281658529272426,
      0.5812153523211553,
      -0.02029210141976731,
      0.5150547864622625
    ],
    [
      -0.12406632995935411,
      -0.45042287113621116,
      -0.12313078841617194,
      -0.38471683047670957,
      -0.444572594552995,
      -0.16889328265100845,
      0.07709498972376365,
      0.1027706766878025,
      -0.3583692604301985,
      -0.12363598026017474
    ],
    [
      -0.06744206984531247,
      0.35081337937830115,
      0.027092145391194394,
      -0.5262102951206573,
      0.5808363692003098,
      0.016078811149929886,
      -0.24782680845669294,
      -0.07426975243902259,
      -0.10186292339776878,
      0.10500389978292193
    ],
    [
      0.12080810401227822,
      0.054838853758237716,
      0.17662068107290835,
      0.21583486315459713,
      0.04855562050610206,
      -0.005641300094474675,
      0.1627055655487752,
      0.027523777360900746,
      0.5493959947869546,
      0.11195703552935315
    ],
    [
      0.11679926058096521,
      0.2456878107462564,
      0.46472960681066555,
      0.7379702659616855,
      0.21125700811905357,
      0.32827827795487946,
      0.4290802356455595,
      -0.12045935414368367,
      -0.058240839515043816,
      0.05248172001963497
    ],
    [
      0.06290491672697468,
      -0.16343951748541624,
      -0.4497796209627272,
      -0.5405338252038961,
      -0.332694578800834,
      -0.16573428151073616,
      0.08275101434556459,
      0.38996393924648076,
      0.5880945585025533,
      -0.42396156131132795
    ],
    [
      0.1777658724796931,
      -0.07555171473001074,
      -0.4146134699919206,
      0.01554959339341267,
      0.3598964280665284,
      -0.09930171455784959,
      0.07762336178138662,
      -0.29526518165836607,
      -0.08503737461761689,
      0.8093994855901329
    ],
    [
      -0.09015135208395604,
      0.6670559856867766,
      0.08875362653994266,
      -0.0016570978124442757,
      -0.19385101827497622,
      0.1311546473845404,
      -0.07190636268929262,
      0.07126793509153526,
      -0.27009456697256073,
      0.27034339079897196
    ],
    [
      0.2299656195039579,
      0.023998189998470754,
      -0.005140516997885034,
      0.05820860657207734,
      -0.028362162616211706,
      0.21610827943267608,
      -0.4013483566813266,
      -0.02032254496141964,
      -0.6634112416958251,
      -0.48620000758845444
    ],
    [
      0.731731051859331,
      0.4446200799585959,
      0.30177391527425823,
      0.03267771687190682,
      -0.3764621834768366,
      -0.0551778747631103,
      1.0841652924927978,
      0.7458523609569925,
      0.22917568264952126,
      0.5355679373320558
    ],
    [
      -0.4397040214644985,
      0.11115452231400544,
      0.3310700253130552,
      0.1401543432873992,
      0.6115963859220874,
      0.1474108615770789,
      0.17239679722333198,
      0.3754926842891529,
      0.48662443294275276,
      0.7942659409826698
    ],
    [
      -0.4139796585794049,
      -0.3932202945062098,
      0.3857872520776797,
      0.10617121420131398,
      0.44777433905731756,
      -0.3591748464250394,
      0.4970244796918763,
      0.022504427625985226,
      0.2979642623948193,
      0.5362108990389391
    ],
    [
      -0.07087203489516097,
      -0.30305870854183825,
      -0.06841048619025493,
      -0.1592715519279988,
      -0.5406857830148932,
      0.003434489019128096,
      -0.15426653454327616,
      0.1435509283942614,
      -0.8956939486420165,
      -0.4280703419314218
    ],
    [
      -0.6423986305063725,
      -0.5378690879965385,
      -0.24530046776310732,
      0.3524293961365654,
      -0.19994540486866655,
      -0.018922437399275523,
      0.046048742696613534,
      -0.028791103431616644,
      0.2666006491579539,
      0.3504477511600674
    ],
    [
      0.30451703255996354,
      0.2632310495878424,
      0.11160616181815872,
      0.6993665286003015,
      0.2970709909848269,
      -0.2105632013221975,
      -0.34004103657138435,
      -0.28798674666549207,
      -0.5066935242118515,
      -0.0020295100815792794
    ],
    [
      0.10307733405229168,
      0.10169915572274218,
      -0.05051000998329239,
      -0.14565687508620978,
      0.7403581502622313,
      0.06647098703219737,
      0.022359595448102277,
      -0.3091891839997541,
      0.2641541701045437,
      0.6776498554213991
    ],
    [
      -0.26033255990739457,
      0.12337928016923363,
      0.16983131809691498,
      0.1705596346503673,
      0.24577510715175316,
      -0.4064105918956884,
      0.4443946078685435,
      0.6472509026366382,
      -0.12825435697716292,
      0.2587278301473946
    ],
    [
      -0.6785099214247169,
      -0.4385330873475299,
      -0.3422700904261182,
      -0.7052859945944884,
      -0.2091186764100973,
      0.03925545998079676,
      -0.18038572783396467,
      -0.5345363330848527,
      -0.05230212440490398,
      0.11659352344114671
    ],
    [
      -0.539345968166495,
      0.08012410992387156,
      0.7194257911171614,
      -0.43673665634597536,
      -0.32916867157229723,
      -0.12947563643757395,
      0.08256160711182556,
      0.4056919052508418,
      0.49202882177083773,
      -0.3832733048457678
    ],
    [
      0.3734051229037819,
      -0.30935222922493305,
      0.6185372971791385,
      -0.05859066892958485,
      0.22078744088742386,
      0.2582553123396881,
      0.3392351923434786,
      0.4199009596758744,
      -0.5610526855532274,
      0.4713987317232865
    ],
    [
      -0.3323147628260861,
      -0.00660313439453687,
      -0.01336329027939609,
      0.20064652419924311,
      -0.3915461542694183,
      -0.2393527720782333,
      0.22076017968466946,
      -0.003897192705587183,
      -0.11227197998604083,
      0.39443421760966285
    ],
    [
      0.023583195704059867,
      0.03226674859583642,
      0.08295794975583816,
      -0.08935091211609761,
      0.5468836165035517,
      -0.3314561548478686,
      -0.02776798011877286,
      0.3635093620809322,
      -0.34460773030343594,
      -0.8353020503989481
    ],
    [
      0.3699282930672913,
      0.9086476688991698,
      -0.2864103763249156,
      -0.30465663361487294,
      -0.1833583842215531,
      0.11581915217996261,
      0.18158981860195605,
      -0.36862640778453104,
      0.12133138416739245,
      -0.08304210075839287
    ]
  ],
  "b1": [
    0.2032436689358833,
    0.013456749062873873,
    -0.011485545388817684,
    -0.04547595806165056,
    -0.11142087445930972,
    0.08974628499546469,
    0.18330524190367262,
    -0.1912523877483932,
    -0.057854674549312146,
    -0.03348264644949389,
    -0.13799629406244562,
    -0.3214848689721267,
    0.3607718476171684,
    0.01746661795652621,
    -0.5327183647860924,
    -0.39045009318902163,
    -0.057009456920741955,
    -0.08936234169619142,
    -0.083089982391667,
    -0.055939805186803165,
    0.18479052166530363,
    -0.19841960663476388,
    0.358036253242037,
    0.3141609152111261,
    -0.585853872284843,
    -0.13279253721200668,
    -0.007825516647853331,
    -0.11964070963965712,
    -0.3067418046169977,
    0.058428291735818774,
    0.054784823800374464,
    0.1597134051703101,
    -0.5620941033476835,
    -0.6000078409681393,
    -0.01426920221295434,
    -0.003754684975040927,
    -0.33304053858120475,
    -0.12810272820293,
    0.033296229019310696,
    -0.11887570143235832,
    0.09230982471214375,
    0.3823900759936968,
    -0.2484689064745748,
    0.013077853859865513,
    0.09790572222978126,
    0.09021494527282191,
    -0.20025803560957128,
    -0.13660342258143499,
    -0.24532227049252392,
    -0.0794671150098572,
    0.551012292243912,
    0.2844582831356639,
    0.3947741445856829,
    -0.12413362212730783,
    0.02087673251409192,
    -0.020852210179396678,
    0.5163160544630461,
    0.3304821806777485,
    -0.5598563411019537,
    0.12708686591056484,
    0.4769887807743805,
    -0.16843506211027565,
    -0.050719726908750366,
    0.09549125668194863
  ],
  "Wa": [
    [
      -0.12627277047517693,
      -0.08492591240300054,
      0.38288228490567255,
      -0.008406756459342373,
      -0.06432819953548354,
      -0.12848731455721094,
      -0.0902624913484118,
      -0.10057044295902243,
      0.06359450101981114,
      0.09950729414693517,
      0.42004165092111867,
      0.3494021928377904,
      -0.010603309229615429,
      -0.3508307360616477,
      0.14027950510491935,
      0.26165691344412034,
      0.0006380812088077898,
      -0.1506280041798245,
      0.07667364554163181,
      -0.1738611737380118,
      -0.27987727917736016,
      -0.08430950771396153,
      -0.29561886095761924,
      0.13123121848689237,
      -0.059071080634519914,
      -0.3372324403480841,
      -0.3745956918033195,
      0.04973176071459834,
      0.0736831247412712,
      -0.21219353369950808,
      0.22134667645475276,
      -0.05913743823887671,
      -0.4553715707491388,
      0.14476544207809566,
      -0.12921042409182076,
      0.02181191706043758,
      0.3071822532356786,
      -0.19071647577400996,
      -0.032054713194295203,
      0.04990991887492083,
      0.3107143214600641,
      0.12870550030721392,
      0.0013842984996062261,
      0.190830551564869,
      -0.15038842208345504,
      -0.14795589806400547,
      0.3213927653316171,
      -0.02527696241226697,
      -0.11502635013436507,
      -0.29371146196368325,
      -0.09002444354320804,
      -0.10365826300268231,
      0.07703387587451352,
      -0.27457348705382606,
      -0.38664426780738814,
      -0.1249391300427205,
      -0.26525942799553864,
      -0.00908789542687553,
      0.34467188436770624,
      0.3246100639731726,
      0.02041047800868766,
      0.10318280825161473,
      -0.22725407927613495,
      0.018095521801461935
    ],
    [
      0.22885288588141478,
      -0.4947096212868952,
      -0.05195238446595961,
      -0.057767386366496844,
      -0.07506578730559024,
      0.3622505883755116,
      -0.045317774960496306,
      0.18327486335507653,
      -0.2639739930487145,
      0.0749470300925813,
      0.08396165955737364,
      -0.11705529754530469,
      -0.3422651644779977,
      0.17475275406038013,
      0.16704185043120756,
      -0.1899214959779772,
      0.2668835768269163,
      0.3455935483931055,
      -0.3603979271513793,
      -0.16511475899326108,
      -0.08115787736427192,
      0.3049424653556126,
      0.06288035490528363,
      0.3270468242705559,
      -0.29128736004096223,
      -0.18490477654231657,
      -0.23531401331756896,
      -0.04888968397643714,
      0.04757265761669238,
      -0.00020492749023406822,
      -0.07873580810040894,
      -0.04545003642794577,
      -0.01628726787425951,
      -0.20093201672771735,
      0.15834758412984878,
      -0.40015995380360936,
      0.18648201075410753,
      0.16117116939981618,
      -0.1730012826662441,
      -0.2549707996218854,
      0.10591588026931964,
      -0.056545753797322656,
      0.1260583753738056,
      0.05468118725363376,
      0.11918756516011819,
      -0.07260028952557872,
      0.12047679026797468,
      -0.17564967718132074,
      -0.18885907620263517,
      0.4298546295507355,
      0.3231145195319276,
      0.0097486906691489,
      -0.12919472587104452,
      0.5843910697922222,
      0.13128259291107536,
      0.4889699344617664,
      0.25596700282238805,
      0.009880981299964972,
      0.28029697147868193,
      0.049529489104912054,
      -0.19129680354378148,
      0.03211820743538051,
      0.12907014550672524,
      0.20977508277105533
    ],
    [
      -0.1748131584078363,
      0.1782688119454502,
      0.12751058807505314,
      -0.08265789367851115,
      0.003922526409254031,
      0.15453881987170798,
      -0.20491423640740394,
      0.0086614252015587,
      -0.3102038398621873,
      0.08793365353196057,
      -0.14190364656686932,
      -0.019400030132904443,
      -0.16745255369059503,
      -0.13188690013808463,
      0.1796894513045311,
      0.14193322176051948,
      -0.12016229277747294,
      0.09328172555766738,
      -0.0011456372859934196,
      0.054315304972499354,
      0.014691380033600232,
      -0.18205808691625613,
      0.0018295016449767134,
      -0.06518206965886969,
      0.1896210102807325,
      -0.17187050967844814,
      -0.2558538246639427,
      -0.17408397365255213,
      0.03664593357042433,
      0.24869174385157955,
      0.20742985437011568,
      -0.19837060894137937,
      -0.1988437162381328,
      -0.27120097107937025,
      0.12137504263500905,
      -0.05183419435650623,
      -0.02703615697924531,
      -0.1295023814518007,
      0.07037733916990843,
      -0.2715947800792814,
      0.056523675863824396,
      -0.060086365908035524,
      -0.1763969513235593,
      -0.3711715105286193,
      -0.002804740616582287,
      -0.07824552030292756,
      -0.24392745278752204,
      -0.06703500941845651,
      -0.1950825700585735,
      0.07852611322771018,
      -0.21353663291050612,
      0.01934477653103807,
      -0.15023072058137987,
      0.23938121719147507,
      -0.3063469195663042,
      -0.4111227802372385,
      -0.4374528547068507,
      0.050098894235159924,
      0.17463678833419305,
      0.07305643176399837,
      -0.00024200505392425829,
      -0.41886280425337297,
      0.0690594681434621,
      0.38198140101896627
    ],
    [
      -0.3307438864931356,
      -0.11393752130900714,
      -0.06291628236963195,
      -0.04857503000693157,
      -0.00041784749788493494,
      0.25511005157980604,
      0.1685430607329808,
      -0.2144567141109157,
      0.5399974401020091,
      0.12425566750277675,
      0.34728661476298056,
      -0.20858142507196145,
      0.299043891632538,
      0.1094214447715621,
      0.21523648715359395,
      0.25775796762250985,
      0.15487843186596195,
      0.16659382468170258,
      -0.041173821003733714,
      0.10221250681226399,
      0.18436580655028917,
      0.08393235305909624,
      -0.14770679077634302,
      0.08569047498339968,
      -0.3762358875495892,
      0.09648142159049951,
      -0.2897093508349843,
      0.5110138570428424,
      -0.04338442301523518,
      -0.5278443350125888,
      0.03592552837633186,
      0.23431174524967183,
      -0.24929857804018712,
      0.1405355667726531,
      -0.12837106845847407,
      -0.02776078574982599,
      -0.05293999262174754,
      -0.08977267469140308,
      -0.029743493065203193,
      -0.23393243997111635,
      0.1573955005747729,
      -0.056983024151044115,
      -0.37950252035608106,
      -0.3527383269168737,
      0.21359487292969814,
      -0.046498504210471484,
      -0.13301531796657112,
      0.17030388930330542,
      0.08244099136720812,
      0.14434299684263183,
      -0.2187624841374581,
      0.03267009536879643,
      -0.05473115292456222,
      -0.044361011871604225,
      0.33078141036604913,
      0.09106623453739021,
      -0.2675806569634006,
      -0.36774127686088126,
      0.19576791250264147,
      0.057176325548535786,
      -0.2051332900973994,
      -0.19818149210660593,
      -0.2236908715337274,
      0.3577952338214172
    ],
    [
      -0.02233218463889209,
      -0.24067824565283535,
      0.2762006762884171,
      -0.039450330034645126,
      0.2687778419496735,
      -0.13414380808374415,
      0.0700617509889076,
      0.28223620720900905,
      -0.45834309759855973,
      0.1649375261245528,
      0.1249107327542541,
      -0.32515795889726806,
      0.3190415916363174,
      0.11684232879674455,
      -0.2378891477381686,
      0.20192211970681903,
      0.24014821824475177,
      0.10597865750480356,
      0.11753863981912585,
      0.2198237407578549,
      0.05444136642535281,
      -0.055762083547693075,
      0.5194788787461702,
      -0.33982681899771017,
      -0.22701343002261382,
      -0.2756557289406683,
      0.296448607365262,
      0.0845681139216747,
      -0.22970201752580016,
      0.10680272110967379,
      -0.1849127696992569,
      0.3223698957178197,
      -0.3055349707440079,
      -0.08946053652951608,
      0.12693511951591546,
      0.28538140909504917,
      -0.18926011790253403,
      0.4519936255387556,
      0.10131395720040402,
      -0.2786981771190976,
      -0.386850120063371,
      0.27785553996840334,
      0.18975482325598,
      -0.0017745950985448467,
      0.06647279538688167,
      0.18300252280348445,
      -0.13795119842854914,
      0.22177308362727446,
      -0.07423864206900538,
      -0.5312825748766715,
      0.3247456519575739,
      -0.03436372094630359,
      0.2747982119070026,
      -0.7173125674960976,
      -0.25585767034992823,
      0.18256277139684862,
      0.09794351431304843,
      0.05804508434342761,
      -0.5528220700808704,
      -0.07491547336764605,
      0.04970132997059809,
      0.31706740715012166,
      -0.1632846775101337,
      -0.11845964820475394
    ]
  ],
  "ba": [
    -0.25521027443231353,
    -0.04412200852290101,
    0.3581858766667356,
    -0.25407511578991104,
    0.09308255283211345
  ],
  "Wv": [
    [
      -0.12706659589918434,
      -0.009142375168894764,
      0.09828433188298621,
      0.03816848951993391,
      0.08897209577523219,
      0.14803339507122415,
      0.5680369144884626,
      -0.09274083499058396,
      -0.12861562932396545,
      -0.21039039862659292,
      -0.14052611678689092,
      -0.7932733509603401,
      0.6968749947672928,
      0.10376760870488985,
      -0.9802114808053175,
      -1.1905954323516297,
      0.1994286284969293,
      0.01644527045502191,
      -0.06333452184076606,
      -0.12076162010293749,
      -0.04329282341551833,
      0.030132260343551306,
      0.6581432174217035,
      0.06950630469724925,
      -0.9395251557558082,
      0.021224434521235604,
      0.0472467573199641,
      -0.15966255597145346,
      -0.5998291545897306,
      0.04306167209777511,
      0.12446922109923284,
      0.955854349226457,
      -1.0931789709955337,
      -0.8559049322590063,
      -0.09280900580607498,
      0.04848525736725465,
      -0.08835179653937623,
      -0.1531679995741697,
      0.018299061966420633,
      -0.13661435020920132,
      0.03748724503630352,
      0.3707706006664641,
      -0.6094450089099025,
      0.055150014273427896,
      0.13535441350617114,
      0.6457802130237543,
      -0.04374322580994588,
      0.08670755469645967,
      -0.013033825209962779,
      -0.11898702487470428,
      1.3162890807319185,
      0.9744099112058322,
      0.48898332186862253,
      -0.5812179989499409,
      0.012334892671282119,
      -0.06304900246354919,
      0.6119135511245306,
      0.6309545236903658,
      -0.7237052694976884,
      0.01569326963375676,
      0.9479584999924999,
      -0.06043506601541394,
      -0.20514740549847754,
      -0.017803755101407477
    ]
  ],
  "bv": [
    0.5528242405802604
  ]
}