{
  "W1": [
    [
      0.1407137188265503,
      -0.30984671058166235,
      0.3256044368864567,
      0.39555173392623844,
      -0.504429672907434,
      -0.3608850785280606,
      0.16363188987209454,
      -0.031258815820744044,
      0.0744628187935227,
      -0.1812582251736442
    ],
    [
      0.2506327479831135,
      0.19059813208678517,
      -0.06047311441130766,
      0.2757641820292943,
      0.10183794437786091,
      -0.3620268963994227,
      -0.09905439242640068,
      -0.31018767334200226,
      0.21309244971534305,
      -0.03864201241705952
    ],
    [
      -0.03528978025401786,
      -0.29056484166364954,
      0.33888929184515837,
      -0.07902411893321679,
      -0.11293578885481412,
      -0.19143904305122955,
      -0.0010975478161729677,
      0.17814619608313242,
      0.10767828862364301,
      0.1892060499909142
    ],
    [
      0.7005825404598606,
      -0.20487299460146846,
      -0.21274456453183874,
      -0.28752215713983076,
      0.2152803720626407,
      0.25525035833521387,
      -0.229797255412523,
      -0.19723832947355147,
      -0.2817870497848358,
      0.2527192948102914
    ],
    [
      0.23306903790484512,
      0.1463581546693168,
      -0.2761100120247725,
      0.015402325723264328,
      0.0070540115571359596,
      -0.004708273857847805,
      0.05744451824594887,
      0.10231796888349273,
      0.16030144950915778,
      0.026926498646370593
    ],
    [
      0.19112708102893183,
      0.14471399715206074,
      -0.5020834947020147,
      -0.08905903716548691,
      -0.052939011656318244,
      -0.27021666513110615,
      -0.28445897162536177,
      0.6464882804581995,
      -0.2842644479984595,
      0.45627699560526525
    ],
    [
      -0.3544787139017016,
      -0.10989499479271433,
      0.0841929400665398,
      0.24615707006530424,
      0.38712622355390436,
      0.1521405574143075,
      -0.17825757110370588,
      0.022756447714882385,
      0.3399309573755047,
      0.11670653730927243
    ],
    [
      -0.48623830673248664,
      -0.4557974064585566,
      -0.4850705969953317,
      -0.13878761239603893,
      -0.2970145726678912,
      0.007716930255397235,
      -0.2554384295397363,
      -0.23066644295165123,
      -0.015499530569541838,
      -0.4181582152447067
    ],
    [
      0.13040911902742583,
      -0.18599746925590446,
      -0.059555512738688365,
      -0.07629404597035135,
      -0.3709320688172185,
      0.22497050752845,
      0.030762458989511597,
      -0.029040027053223307,
      0.19286450531267627,
      0.12013132802003303
    ],
    [
      0.1722626795405918,
      -0.04432139108953675,
      -0.12640040574778916,
      -0.021226151769785484,
      -0.5391938466649415,
      -0.42622009457446275,
      -0.3249828928589768,
      -0.3371633233011223,
      0.12823365410752752,
      -0.2986763745258417
    ],
    [
      -0.12650129257623988,
      0.5786205043166145,
      -0.01643980584757511,
      0.29832150667939383,
      -0.29181515160053406,
      0.12829871977382482,
      -0.004731203559731964,
      -0.19507443447345563,
      0.33334606237892817,
      -0.6145355333614841
    ],
    [
      -0.05265600248102917,
      0.06738515387128136,
      -0.2685503891252679,
      -0.5882942014332624,
      -0.26546549030613953,
      -0.14382867479504696,
      0.070676506509198,
      -0.26125444174902523,
      0.3496943306135276,
      -0.3611096660816187
    ],
    [
      -0.09484602258164747,
      0.16205473365929096,
      0.28474175655882183,
      0.7466220669712633,
      0.6501793941690313,
      0.23390912905119493,
      0.5708405161098776,
      -0.09447835971386437,
      0.0641664276327408,
      0.029552938118824947
    ],
    [
      -0.08875700577923006,
      -0.639768538595083,
      0.07966142357857235,
      -0.14248967495559212,
      -0.40735683717905596,
      -0.5546024703260833,
      -0.21457122597282796,
      0.3993111990797739,
      0.5542047651312532,
      1.0724615856831314
    ],
    [
      -0.026315045323177112,
      -0.3983415858111298,
      -0.809320713776731,
      -0.15210792425652356,
      -0.5434428222268088,
      -0.2281103689299187,
      -0.25636324732954685,
      -0.27516665621448677,
      0.14873048240988562,
      -0.19954006112173217
    ],
    [
      -0.13259768044721987,
      -0.327649786519736,
      -0.6300320477525649,
      -0.3895953960837266,
      -0.35438171867924867,
      0.3791813844652102,
      -0.02709570395543066,
      0.03494093745678419,
      -0.3324142161726171,
      -0.6940648186613849
    ],
    [
      -0.31801064039085797,
      -0.35140428578689087,
      0.6113765554387212,
      -0.28955413398555707,
      0.3075428420482016,
      -0.4660279281259023,
      0.018378229470662533,
      0.19592722064209517,
      -0.08556633820399329,
      0.07142321645299068
    ],
    [
      -0.18885294774187866,
      0.14950263508462378,
      -0.10118197348739122,
      -0.3174200796320749,
      -0.32180802276455267,
      0.04668624651373397,
      0.3933361755042305,
      0.11819823201277418,
      0.005632520398656065,
      0.1764198426135586
    ],
    [
      0.36130570551661956,
      0.030024772246623747,
      -0.2077660382102393,
      0.25196331587601595,
      0.02310890110371282,
      0.42559815433919135,
      -0.059820410074744965,
      -0.4663035623632391,
      -0.5070807001349192,
      0.4262763087466475
    ],
    [
      0.5389967952133994,
      -0.10585536459911615,
      -0.11145717642601607,
      0.4549012097506181,
      -0.3536000431787388,
      -0.3300968726984233,
      0.14682740459695384,
      -0.12348311193554787,
      -0.008315326394702793,
      -0.04590981504166919
    ],
    [
      0.14898474138214268,
      0.5145862319713266,
      0.15613024489932392,
      0.3527751280527107,
      -0.5255727606871375,
      0.13780554139703177,
      -0.021816044001178675,
      -0.3400492530535122,
      -0.15590454977526863,
      -0.03192470761289947
    ],
    [
      0.3106432698584839,
      -0.46545275082112264,
      -0.026915353386571837,
      -0.1781493581352609,
      -0.09019702391804042,
      0.24655728471765137,
      0.025670215371357635,
      0.47444323688755163,
      -0.06673402976173624,
      -0.18876834888653457
    ],
    [
      0.12363392800073761,
      0.1808806708724891,
      0.2531119313759024,
      -0.027743749072176842,
      0.37232698216022464,
      0.20531750092330645,
      0.8411747103157612,
      0.835702284851145,
      -0.03005708492479472,
      0.1883989742290944
    ],
    [
      -0.4362002761648977,
      -0.16559724351727312,
      0.17307318427048257,
      0.47105244472747854,
      -0.13934087887781196,
      -0.12976070508370996,
      -0.5565903716231964,
      0.013032673866351508,
      -0.2719869101527627,
      -0.08558650291003579
    ],
    [
      -0.5053424995360042,
      -0.15317011637612526,
      -0.8260767949370723,
      -0.8756916189823394,
      0.174649546495879,
      -0.5616859808885779,
      -0.5775417638561524,
      0.21741523585212474,
      0.5596270673927588,
      -0.7817427518988747
    ],
    [
      -0.02218465045194213,
      0.15045921410867388,
      0.6494224396617121,
      -0.14932760360348507,
      0.12448473263874263,
      0.2931918858809929,
      0.10550715123989082,
      0.07860130349030206,
      0.07207028946060864,
      -0.22416156022911538
    ],
    [
      -0.061834620357375955,
      -0.10476390546281197,
      0.02968872149155817,
      -0.2073263054531948,
      0.14136599019595592,
      0.2548254395538515,
      -0.08535911829530114,
      0.13629137886498488,
      -0.010638935301897532,
      0.009428453784196418
    ],
    [
      -0.28445118538286396,
      0.05485830828673537,
      -0.13755004968978768,
      0.5423090388317341,
      0.3840440774742041,
      0.0038675396853281993,
      -0.42613246934048415,
      -0.43145989586744893,
      0.28509949615580726,
      -0.014468295045911544
    ],
    [
      0.030069014234093746,
      -0.6600772034525428,
      0.29460520727486733,
      0.076938054707932,
      -0.4893038023935889,
      -0.13554059605704505,
      0.25571887990635156,
      -0.20829082155458578,
      -0.10635912952108087,
      -0.22168444948047053
    ],
    [
      -0.06365130417220241,
      0.09020260718463335,
      0.5733191034632754,
      -0.6958602969083861,
      0.030415563563044902,
      0.1638010214287583,
      0.2877287844444484,
      -0.06502353512916142,
      -0.46103791443320846,
      0.18456541114660474
    ],
    [
      0.27865492662694924,
      -0.6570361978641399,
      -0.007773208474579681,
      -0.47338808009225053,
      -0.45593210391786027,
      -0.49126365743803246,
      -0.295515880987376,
      0.06578308297745697,
      -0.1088257858036691,
      0.1595611398199581
    ],
    [
      0.4525683366636219,
      0.17265588916226565,
      0.6705508801175744,
      0.368797841040417,
      0.556000062282193,
      0.04001772562114659,
      0.11778485482935017,
      0.02488954375385547,
      0.48739485134577376,
      -0.10267855510115398
    ],
    [
      -0.025857504384464196,
      -0.17732641600549245,
      0.07550808846337789,
      -0.22662988144682406,
      0.04946102744787188,
      -0.0018811962096428043,
      -0.6263235705586316,
      -0.39261769286711823,
      -0.7172640450771207,
      -0.597092424723022
    ],
    [
      0.21504191789190477,
      0.07751315853956812,
      -0.4292409850737715,
      -0.6207973164843199,
      -0.36732347986306624,
      -0.4798782533184387,
      -0.3703994310592076,
      -0.17472934728677902,
      0.10276921480073972,
      -0.12055923507918773
    ],
    [
      -0.8734138727984673,
      0.007677056186112086,
      -0.21238052321813303,
      -0.25613211362238986,
      0.07549702465278497,
      -0.7781398363894847,
      -0.3373409955437751,
      -0.16036538433394154,
      -0.7857540087280244,
      0.08721722410430757
    ],
    [
      0.13138759914969728,
      0.23729049731082852,
      -0.2685701184457285,
      0.17932132681326995,
      0.32148546045469034,
      -0.03828302726354865,
      -0.19244536419731884,
      0.15515591088963618,
      -0.3443305224050931,
      -0.006536719466079361
    ],
    [
      -0.11511556834405359,
      0.1958148516759473,
      0.3536286566130043,
      -0.3493547034040308,
      -0.124394427266417,
      0.5901062933896541,
      -0.006660077359153185,
      -0.37874542266989236,
      0.06733425285035427,
      0.15277811233170688
    ],
    [
      0.06133738321805511,
      0.47377109295169606,
      0.29000522053082933,
      0.2987907834639364,
      0.2365387217537184,
      0.7516423696496503,
      -0.10180120858610835,
      -0.5434377434276425,
      0.5426104891537795,
      -0.08051900466307144
    ],
    [
      0.11243378612300797,
      0.5030118890109112,
      -0.37382528608718546,
      -0.21480495349200568,
      -0.3498193838465957,
      -0.10794916684946844,
      0.36024910014173567,
      0.2469921236961386,
      0.2209681812734624,
      -0.33615083125598555
    ],
    [
      -0.768178550055122,
      0.14333660950509444,
      -0.09605021851378187,
      0.16226624822583646,
      0.14855467054484273,
      0.14693424195776014,
      0.4690857655159908,
      -0.07464811866582166,
      0.1808460696485591,
      -0.34422869847903526
    ],
    [
      -0.06310274194735055,
      0.13521268488089078,
      0.3340294176586892,
      -0.06309262444747882,
      0.17240227360961757,
      0.044779101428340726,
      0.18370030271660304,
      0.21740254391304809,
      -0.5776006304686683,
      -0.4371380082294624
    ],
    [
      -0.33528302198320453,
      -0.9141823230511021,
      -0.25176490408713437,
      0.21323203663022167,
      -0.007963795711861085,
      -0.15959041567777102,
      0.13937173629428137,
      0.5361746228257062,
      -0.020411167671422672,
      0.5615721478574323
    ],
    [
      -7.288570782111044e-06,
      -0.26996679699638026,
      -0.15056914272725236,
      -0.43639165544055003,
      -0.3199714942456535,
      -0.068436455563951,
      0.34605538587063656,
      0.45744066655993887,
      -0.4267056421921407,
      0.05614639379624375
    ],
    [
      -0.2755464788592721,
      0.2001498621034078,
      0.05102671926721912,
      -0.4554582943201051,
      0.41524808839002425,
      -0.10115640782885546,
      -0.009438439800637136,
      -0.25749091366024823,
      -0.11852364982630414,
      0.23929127703668213
    ],
    [
      0.01156863120526548,
      0.10133733139531577,
      0.16298513697123113,
      0.5150247343024595,
      0.05699712713716793,
      -0.3998829430294382,
      0.30613271489896265,
      0.04047643682557312,
      0.4366250850519384,
      0.2850513829895015
    ],
    [
      0.03242998286462681,
      0.14665245449617276,
      0.6725853652937733,
      0.7423754848570441,
      0.149704772759141,
      0.09470437787577811,
      0.3670394942056565,
      -0.1642457137468463,
      0.18746359396028145,
      0.10434623823647927
    ],
    [
      0.1372185706035357,
      -0.24091022503477758,
      -0.4271568926645892,
      -0.5609360050377968,
      -0.26810086900843677,
      -0.07875299110496196,
      0.04255979890742778,
      0.6593741698612103,
      0.41805166240799707,
      -0.239862325483799
    ],
    [
      0.08176740090438302,
      -0.2070041794595842,
      -0.18430461060932724,
      -0.04372817681749316,
      0.11951681932146203,
      -0.23421386413553752,
      0.10960562933824437,
      -0.3692238290519547,
      -0.08448510234864628,
      0.7918958607924215
    ],
    [
      0.04148077960976157,
      0.5248193365259468,
      0.03745236486288613,
      0.14225131781351213,
      -0.10718837299726068,
      0.04344200182901128,
      -0.08596707103843404,
      0.06003372992237706,
      -0.30344276079011,
      0.13261060056040852
    ],
    [
      0.27336578277516244,
      0.12322393452030941,
      -0.12707293822781374,
      0.06382069898538864,
      -0.1949447619941131,
      0.2871971927263709,
      -0.5400764921943073,
      -0.18785741099379005,
      -0.6872046091162791,
      -0.5638697470371654
    ],
    [
      0.6713514529710181,
      0.44910541520183,
      0.19764459085450578,
      0.11939264177991163,
      -0.30134151010920196,
      0.22522674086584668,
      1.0632789883254259,
      0.5728311444873484,
      0.27094786189475595,
      0.6776639232453561
    ],
    [
      -0.2863800553465399,
      -0.07687118919477236,
      0.13800835002348033,
      0.1597085039639689,
      0.5153523980553532,
      0.06413882436056154,
      0.16326129523014338,
      0.0028149678797686688,
      0.43387791465549763,
      0.7637611197612004
    ],
    [
      -0.288322317518653,
      -0.33753135768328674,
      0.39118083283767036,
      -0.08036187618411152,
      0.4410663927935631,
      -0.21135185199684314,
      0.3535132511146192,
      0.06089166621717885,
      0.06870719322753523,
      0.5104099927242831
    ],
    [
      -0.1464433259536776,
      -0.3046687396364929,
      -0.1694490603069515,
      0.04931596429988275,
      -0.6197179174277602,
      0.1626996927701919,
      -0.12113879706217826,
      0.22786382265295313,
      -0.8066649688619629,
      -0.38775274516421127
    ],
    [
      -0.5120558291639757,
      -0.2811612403979066,
      0.08058251776030576,
      -0.0018366431283255366,
      0.005618893781204301,
      -0.08466418396503554,
      0.004679901520346557,
      -0.2562847510296982,
      0.26697744892004444,
      0.28052405028452093
    ],
    [
      0.14904759577079063,
      0.09475479922598662,
      0.09172470937513097,
      0.6962396880111426,
      0.07585858152855465,
      -0.16323001734894943,
      -0.3532443761482338,
      -0.22114842364877008,
      -0.36165215679464496,
      -0.17287146489725583
    ],
    [
      0.12699596983182254,
      0.163019344580053,
      0.1306249469096676,
      -0.024071705316707208,
      0.5598928904307944,
      0.2700003620748306,
      -0.029827218246606314,
      0.05762573675585038,
      0.32662396578273806,
      0.3267265283673881
    ],
    [
      -0.3875807437322826,
      -0.13936167228224228,
      0.030282780442175986,
      -0.25921756928672823,
      0.18555884028257374,
      -0.640960944093713,
      0.08521886484572216,
      0.5509343077459732,
      -0.08893756054814068,
      0.2857956672164619
    ],
    [
      -0.8764317739956162,
      -0.4424198298256018,
      -0.2968112661907901,
      -0.6972075936392436,
      -0.2030473498711133,
      0.3277447707076866,
      -0.49972526634454845,
      -0.5788205718097248,
      -0.19795789107542883,
      0.14015867185502667
    ],
    [
      -0.33796052376383506,
      0.12281000043657846,
      0.7024295419678492,
      -0.3645954012321874,
      -0.23398007425039252,
      -0.028381991308914153,
      0.021373456437991607,
      0.3594666323835972,
      0.20417577223641226,
      -0.426944861091015
    ],
    [
      0.28098820118451273,
      -0.15623745735838712,
      0.5271333668791883,
      0.014719233215880975,
      0.06847652104276294,
      0.21088970695116754,
      0.20407244726087015,
      0.38944601630331765,
      -0.3704162113162392,
      0.4367069528651221
    ],
    [
      -0.31515383916883694,
      0.12602365965235005,
      -0.3860249016278597,
      0.1916063379872174,
      -0.2452874097613905,
      -0.317979138137264,
      0.3835427631597912,
      0.040500283371726495,
      -0.16014599917528394,
      0.4482688885706613
    ],
    [
      -0.10263488079021915,
      0.05397973459407221,
      0.17608989089793034,
      -0.08890307671992179,
      0.24118048695402505,
      -0.07162859778667033,
      0.05979103084575858,
      0.4720495815627925,
      -0.24670990421136751,
      -0.700216689619579
    ],
    [
      0.4838860168348216,
      0.8988502488559192,
      -0.06042049185020632,
      -0.573372297850939,
      -0.1370562296945949,
      0.07104319989534595,
      0.18584447186574926,
      -0.4302149156308231,
      0.22046204577828438,
      0.09318174306437822
    ]
  ],
  "b1": [
    0.11883283788111237,
    -0.03609354089640435,
    0.05739100717471367,
    0.05304469407770701,
    -0.0010258722138591283,
    0.17591604084212323,
    0.21597358536550454,
    -0.39876744209397225,
    -0.016884226503827128,
    -0.018162917046109162,
    -0.059678781852141795,
    -0.3570720586934061,
    0.4305810511557178,
    0.1337941581475205,
    -0.3309974597813515,
    -0.3948776891200795,
    0.0726690572939398,
    0.09516845429263154,
    -0.12532018090496977,
    0.0003437876460749853,
    0.10791290503532831,
    0.03940264791373322,
    0.37943716644364484,
    0.10223471558454891,
    -0.5470816348307835,
    0.25434484110153754,
    0.008119877903514917,
    -0.12770390183550445,
    -0.22539399107258679,
    0.10044343971659961,
    -0.5021759902583137,
    0.34360743284917705,
    -0.5789974187792639,
    -0.42137445825618136,
    -0.4923436511736699,
    0.031909739013091014,
    -0.1306431312424523,
    0.08940127041110602,
    0.15570270768043526,
    -0.13831833493603032,
    -0.020842409981469308,
    0.14161136369769453,
    -0.0758847670615935,
    0.13254279206804054,
    0.20327814795749902,
    0.14813548450242148,
    0.08662573269864114,
    -0.05440734548647061,
    -0.09824158986952253,
    -0.11942329101966984,
    0.6917649101857668,
    0.31775706332685083,
    0.01376779946360785,
    -0.1670644433302651,
    0.08845042955654041,
    0.12914809066180102,
    0.34301893437138004,
    0.18231871530227595,
    -0.4738335612409035,
    0.17535379582889882,
    0.3335575404107432,
    -0.01119787897297861,
    0.08879136133288935,
    -0.07625893691456864
  ],
  "Wa": [
    [
      -0.0994773349276056,
      -0.0012485273924120193,
      0.15855249779108654,
      -0.027583848162554936,
      -0.14312080611557298,
      -0.05410326310247644,
      -0.022541685875051377,
      -0.16090209112990544,
      0.11595651864879443,
      0.06877447347414091,
      0.32662856260730566,
      0.0689875170575348,
      0.09429484687791473,
      -0.21588319177092052,
      0.18630525801358302,
      0.13057436141546802,
      -0.1371706667149239,
      0.025000743796897963,
      0.057871913205441904,
      -0.04901840911151031,
      -0.1240944808062659,
      -0.0913291550301011,
      -0.23016746013825795,
      0.07014275806363728,
      0.10047862381494883,
      -0.21491463832855615,
      -0.29579033701693025,
      -0.020633564427552115,
      0.016936355721875542,
      -0.261096221653897,
      0.10857520654532851,
      -0.07404734180491573,
      0.016501146476037582,
      -0.05044203787634977,
      0.19270226826547687,
      -0.0456801024554387,
      0.34757564310329525,
      -0.05838346889008236,
      0.14004811259260663,
      0.02204644841901332,
      0.18776594182004575,
      -0.020386321178199548,
      0.25759823689524985,
      0.02690969956557377,
      -0.16591797995145272,
      -0.17786792659312117,
      0.20863844808616883,
      0.08883722486947308,
      -0.015043729624032557,
      0.06367393255905457,
      -0.017005326401672995,
      -0.1377702184755834,
      0.0041027071248433584,
      -0.1694396263415227,
      -0.12119409264284403,
      -0.13495085825663378,
      -0.39136047614168495,
      -0.16896527720202684,
      -0.009463868865737938,
      0.0591567340517052,
      0.08902296580064914,
      0.052748944519775076,
      -0.03440984969817678,
      0.06392945787604257
    ],
    [
      0.15379592018415955,
      -0.15014462544357926,
      -0.1486139318026072,
      0.05859159341465576,
      -0.06170054787717858,
      0.07466139212862166,
      -0.039123242333287414,
      0.12145229461669835,
      -0.09815999016794735,
      0.041265549400058624,
      0.007854477245651897,
      -0.11363934806515215,
      -0.2392305420172385,
      0.0558805297911707,
      -0.0007889808955769963,
      -0.08759021284426799,
      -0.030383503678306136,
      0.128747690232202,
      -0.31221733958864817,
      -0.1944273329985308,
      -0.0867241689138258,
      0.1536177998110329,
      -0.009094892956343116,
      0.1346329478456913,
      -0.09866163107928308,
      -0.16286594962657894,
      0.0260940806901247,
      -0.016562970538035682,
      0.09989245049097714,
      -0.009596644964883778,
      0.06169600518519446,
      -0.022135802481825815,
      0.14080465344817086,
      0.14423293448707644,
      -0.16302701026674699,
      -0.3094635864704803,
      0.14212249088745726,
      0.10877211528776103,
      -0.0970441643036907,
      -0.21966895244092363,
      0.04052366904644364,
      0.07855306748101404,
      0.26102171869492025,
      0.09411492408979161,
      -0.08848373784596938,
      -0.15550697700517727,
      0.03922645899451373,
      -0.07071177252758365,
      -0.11028195628121792,
      0.29998072204365306,
      0.18495157861232236,
      0.10020340374943114,
      -0.15777611888796078,
      0.14831006894798524,
      0.07119060332445229,
      0.03983868214713588,
      0.11691555108574382,
      0.05808332467277852,
      0.13489234330292046,
      0.1034567509780608,
      0.01074140171746786,
      -0.19636555670037475,
      0.04046521168888616,
      -0.04288682375768169
    ],
    [
      -0.14906834566980898,
      0.1956013157944445,
      0.1935866637010869,
      0.17157502603351285,
      0.014326503027965162,
      0.17879296053545268,
      -0.019173979689971983,
      0.06455253454849533,
      -0.11677512762288215,
      0.07425214501044422,
      0.03208690848246286,
      -0.14169204556807435,
      -0.031955985653964444,
      -0.03038747231643252,
      0.2500140164582717,
      0.13275885568716173,
      -0.026342592304599163,
      0.00031956048240080565,
      -0.01003254326671971,
      -0.03207088228839218,
      -0.11486002940552814,
      -0.03622799942264364,
      -0.11897811284769536,
      -0.13657342057805139,
      0.09159659242559397,
      0.014277233981670212,
      -0.24166992538051274,
      -0.02871334199071377,
      0.1370763097982684,
      0.13039565508481832,
      0.16412572857055202,
      -0.01772600914167971,
      -0.0811511750586288,
      -0.10960595196839616,
      0.06720899760020137,
      0.03153770558778427,
      0.16352624231631516,
      0.11560288116122389,
      0.007326610401657559,
      -0.15545727320860092,
      -0.025376776579448836,
      -0.00132762530794556,
      -0.006562359398324123,
      -0.05568838161427089,
      0.008766897294177756,
      -0.08831126862605525,
      -0.055099472635161614,
      0.016727084304219444,
      -0.04273011767934239,
      0.05557888569080102,
      -0.017408840668722923,
      -0.16588606395268216,
      -0.08601926344108411,
      0.20145643646648503,
      -0.15040845552935478,
      -0.27077360176938414,
      -0.25344380329715555,
      -0.012652135857040097,
      0.023855891445368104,
      -0.0022150735347717396,
      0.11277549805042747,
      -0.3206114091348501,
      0.06704725367148204,
      0.21897842688836722
    ],
    [
      -0.151475340454847,
      -0.04152588696112179,
      -0.08957350449005373,
      -0.10381148023473727,
      -0.03411261997105092,
      0.18134551279880637,
      0.2373088341754129,
      -0.039450315680742705,
      0.23256077776292222,
      -0.0030114675673751823,
      0.2158448487406196,
      -0.016418720718220516,
      0.02312630738019255,
      0.04789885302645665,
      0.39040913269122945,
      0.10323463312567735,
      -0.09439307082278615,
      0.11209324562206684,
      -0.03772845520281337,
      -0.06851028262462995,
      0.1087023174077213,
      0.010339405830378585,
      0.041543009774059544,
      -0.004087142561265078,
      0.03565515198290985,
      0.04606757742438938,
      -0.23433884531373678,
      0.09350951163322793,
      -0.1296738462415019,
      -0.19010117413294306,
      -0.0008273272381733365,
      0.01702919408544768,
      -0.09209532577700387,
      0.09668435068408371,
      -0.17264823670491708,
      -0.04394082963406455,
      -0.071543118809131,
      0.003628587090041965,
      0.028090715503046502,
      -0.12957892023684858,
      0.08293868517702042,
      0.01022985720037177,
      -0.24525813133196595,
      -0.2513749049666169,
      0.004043541470567532,
      -0.02046134110701506,
      -0.01951559751685014,
      8.431016043141668e-05,
      0.026055935375555193,
      0.11248567271850078,
      -0.14216619380378995,
      -0.1398360336682272,
      -0.13155574254085403,
      0.02881884431210513,
      0.15687230931127422,
      -0.05247116461719857,
      -0.3055319222424312,
      -0.2170753931979125,
      -0.10769406193684469,
      -0.07575509752198763,
      -0.052954604852777844,
      -0.006215049713235653,
      -0.04549151652382992,
      0.12776643211865957
    ],
    [
      -0.1948837774557753,
      0.017683981954588562,
      0.21068440732573146,
      -0.1413035690504701,
      0.19458020085502858,
      0.04257153072276591,
      0.1314809913909505,
      0.06761335284410878,
      -0.2187454302153331,
      0.08000896865228685,
      -0.17919223401475867,
      -0.3051162613769932,
      0.18553911822249586,
      -0.008570212985283694,
      -0.2683187034195756,
      -0.09902111419434259,
      0.1501069351458682,
      -0.028532183657453834,
      0.2523021720434816,
      0.17457855653987178,
      0.04792971521816079,
      0.19523284350293474,
      0.35120623842721,
      -0.4006341981743297,
      -0.2155500241800246,
      -0.0420595722309314,
      0.14916837632805047,
      0.03649786262040358,
      -0.14003823891782616,
      0.1737339045159007,
      -0.10098291735428575,
      0.21777688029115727,
      -0.19742533126572714,
      -0.16671624668229182,
      -0.14618822880175147,
      0.18288961532036735,
      0.0748327665714105,
      0.368967394050169,
      -0.10050429522188084,
      0.021494287579487934,
      -0.2645862370305916,
      0.1514660528457933,
      -0.02985202771215889,
      -0.023404119148646665,
      0.19722266469592442,
      0.2908019018156384,
      -0.10305814636073957,
      0.30042394974895964,
      -0.0281228796084643,
      -0.22421451222128588,
      0.1912770328630516,
      -0.20067456094076072,
      0.22618891899043359,
      -0.623955371441473,
      -0.18491963682755674,
      0.11384494299277677,
      0.21383234991081634,
      -0.055087893125941284,
      -0.25276072471868394,
      0.0567320453453891,
      0.06235578550466482,
      0.16794247370069826,
      -0.13572671819193158,
      -0.06707905697969144
    ]
  ],
  "ba": [
    -0.12435748903742555,
    -0.046571378282077386,
    -0.0269268605738711,
    0.007546662210832636,
    0.19030906568254174
  ],
  "Wv": [
    [
      -0.03398547880568308,
      -0.06313100828790999,
      0.086933068625968,
      0.09042004243474908,
      0.05608054396854883,
      0.17015607398213917,
      0.22077644175913902,
      -0.9838991951837315,
      -0.0006403037163683304,
      -0.2762291187090555,
      -0.1986701557576782,
      -0.6075410568925226,
      0.8325395857875658,
      0.24127169333214432,
      -0.8934681484844453,
      -0.9253985022866513,
      0.05205207086210667,
      0.023867680390446275,
      0.008135790085677283,
      -0.030283569649258043,
      -0.05672327533665565,
      0.09060035810491107,
      0.7459167379793004,
      0.024977273563875333,
      -1.1453024433560837,
      0.22438885688656973,
      0.04198203925795961,
      -0.0945308316761975,
      -0.3523175435521768,
      0.04324269833562901,
      -0.532043459029992,
      0.8411287225758124,
      -1.0922575387759266,
      -0.5888912926171558,
      -0.8987710635030375,
      0.053032895058504094,
      -0.05065463580862503,
      0.2191758233019485,
      -0.024377782969721914,
      -0.1443379884261446,
      -0.01735925417806504,
      0.2791358995171704,
      -0.060609843084041395,
      0.0065306297297146355,
      0.3776128980368607,
      0.38338779598735195,
      0.024017118873349848,
      0.065979681596305,
      0.010480252062810232,
      -0.37899692406954616,
      1.468941012891183,
      0.8075104064124718,
      0.27372551685213603,
      -0.49586912065777755,
      -0.018145122076540034,
      -0.0333682164382577,
      0.6746270600494045,
      0.1227562913760244,
      -1.0456286713125298,
      0.00085026755697209,
      0.6285238398263837,
      -0.0011212197846361609,
      -0.007296567176128675,
      -0.06009555415950124
    ]
  ],
  "bv": [
    0.5214674491739347
  ]
}